digraph Tree {
node [shape=box, style="filled, rounded", color="black", fontname=helvetica] ;
edge [fontname=helvetica] ;
0 [label="petal length (cm) <= 2.6\ngini = 0.67\nsamples = 94\nvalue = [50, 53, 47]\nclass = versicolor", fillcolor="#f9fefb"] ;
1 [label="gini = 0.0\nsamples = 30\nvalue = [50, 0, 0]\nclass = setosa", fillcolor="#e58139"] ;
0 -> 1 [labeldistance=2.5, labelangle=45, headlabel="True"] ;
2 [label="sepal length (cm) <= 6.45\ngini = 0.5\nsamples = 64\nvalue = [0, 53, 47]\nclass = versicolor", fillcolor="#e9fcf1"] ;
0 -> 2 [labeldistance=2.5, labelangle=-45, headlabel="False"] ;
3 [label="petal width (cm) <= 1.65\ngini = 0.4\nsamples = 41\nvalue = [0, 47, 18]\nclass = versicolor", fillcolor="#85efb1"] ;
2 -> 3 ;
4 [label="gini = 0.0\nsamples = 28\nvalue = [0, 46, 0]\nclass = versicolor", fillcolor="#39e581"] ;
3 -> 4 ;
5 [label="petal length (cm) <= 4.85\ngini = 0.1\nsamples = 13\nvalue = [0, 1, 18]\nclass = virginica", fillcolor="#8844e6"] ;
3 -> 5 ;
6 [label="sepal length (cm) <= 5.95\ngini = 0.28\nsamples = 4\nvalue = [0, 1, 5]\nclass = virginica", fillcolor="#9a61ea"] ;
5 -> 6 ;
7 [label="petal length (cm) <= 4.65\ngini = 0.5\nsamples = 2\nvalue = [0, 1, 1]\nclass = versicolor", fillcolor="#ffffff"] ;
6 -> 7 ;
8 [label="gini = 0.0\nsamples = 1\nvalue = [0, 0, 1]\nclass = virginica", fillcolor="#8139e5"] ;
7 -> 8 ;
9 [label="gini = 0.0\nsamples = 1\nvalue = [0, 1, 0]\nclass = versicolor", fillcolor="#39e581"] ;
7 -> 9 ;
10 [label="gini = 0.0\nsamples = 2\nvalue = [0, 0, 4]\nclass = virginica", fillcolor="#8139e5"] ;
6 -> 10 ;
11 [label="gini = 0.0\nsamples = 9\nvalue = [0, 0, 13]\nclass = virginica", fillcolor="#8139e5"] ;
5 -> 11 ;
12 [label="petal width (cm) <= 1.65\ngini = 0.28\nsamples = 23\nvalue = [0, 6, 29]\nclass = virginica", fillcolor="#9b62ea"] ;
2 -> 12 ;
13 [label="gini = 0.0\nsamples = 5\nvalue = [0, 6, 0]\nclass = versicolor", fillcolor="#39e581"] ;
12 -> 13 ;
14 [label="gini = 0.0\nsamples = 18\nvalue = [0, 0, 29]\nclass = virginica", fillcolor="#8139e5"] ;
12 -> 14 ;
}